3 10
the -0.10096 0.075189 -0.13284 -0.14038 0.010948 0.056998 0.08766 0.045866 -0.020963 -0.025188 
and -0.05011 0.073376 -0.10247 -0.10055 0.058213 -0.019147 0.099739 0.059957 -0.061825 -0.035058 
to -0.040036 0.046248 -0.072307 -0.065767 -0.018565 -0.018422 0.072034 -0.013749 -0.048544 -0.022819 
