3 100
the 0.0015805 0.00071815 -0.0050367 0.00017583 0.00044411 0.0019537 0.0029697 0.0043931 0.0067178 -0.0018782 0.0018254 0.0017555 0.001451 -6.5464e-05 2.6872e-05 0.001325 -7.0773e-05 0.0001304 -0.0011437 -0.0053693 -0.00056754 0.0040016 0.00010468 -0.0018569 -0.00093028 1.2884e-05 7.1436e-05 -0.00023439 -0.00034777 0.0033658 -0.0010617 0.0010657 0.00093565 -0.001986 -0.00093279 -0.00086076 -4.5305e-05 -0.0017059 0.0029793 -0.0047165 0.0021483 -0.0011045 0.0012879 -0.002657 -0.0030612 -0.0030496 0.0030107 -0.0027823 -0.0020999 0.00082376 -0.0029048 0.0019268 0.0017033 0.0025183 0.0012089 -0.0017355 0.00090352 0.0024775 -0.0028743 0.00011291 -0.00061177 0.004125 -0.0017505 -0.00051321 0.0028839 -0.00084037 -0.0018654 0.0033661 0.0011647 0.0017786 -0.0025593 0.0005433 -0.0058737 -0.0017211 -0.0006199 -0.003071 -0.0012158 0.0017364 0.00083629 0.002335 -0.00018766 0.0023161 0.0062002 -0.00051298 -0.0012394 0.0013415 -0.0042289 -0.0011144 0.0023931 0.00049213 -0.00061922 0.0024687 0.0052892 -0.00075706 0.00038945 -0.0026854 -0.0035752 0.0016371 0.0017674 0.0014313 
and 0.0018489 -0.0015014 -0.0012013 -0.0025994 0.0048017 0.0028192 -0.0055043 0.00011653 -0.0019283 -0.0016373 -0.0030359 -0.0032741 -0.00053628 -0.0022833 -0.0012805 0.0012945 0.0014247 -0.0019198 -0.0010808 0.0007488 0.0016804 0.0030547 0.00074039 -0.0001653 0.0016108 0.0025658 -0.0013651 0.0017432 -0.00073011 -0.0019537 -0.0039202 -0.0040613 -0.001757 0.0012206 0.0012276 0.0024084 -0.0046276 -0.0023302 0.00054788 0.00042931 -0.0037954 0.00049137 3.0074e-05 0.0023238 0.0035706 0.0014622 0.00071915 -0.001784 0.0024318 -3.8704e-05 -0.0026463 0.0021666 -0.0013396 -0.0016611 -0.0026197 -0.0030407 -0.00083753 0.00016228 0.0041594 -0.0017149 0.00071501 0.0019626 0.0019175 0.0026732 0.00024812 -0.0010661 -0.0030047 -0.0024119 -0.001714 -6.8958e-05 -0.00097625 0.00029312 -3.4602e-05 0.00017137 0.0018157 0.0030363 -0.00072562 0.0034537 0.003257 0.0021235 0.001524 -0.0032826 0.00017455 0.00057064 0.00054658 0.00047834 0.0003723 -0.0023285 -0.00038502 -0.0019907 -0.0010202 0.0026374 -0.00020054 -0.00099305 0.0015651 0.0034541 -1.6493e-05 0.0010708 0.00085147 0.0011697 
to 0.0039206 -0.002016 -0.0018019 -0.00061462 0.0036255 -0.0017351 -0.0025044 -0.0052736 -1.9667e-05 0.0052726 -0.00058689 0.0033522 -0.00066068 -0.0060214 -0.00257 0.0021358 0.0025927 0.00012954 0.0002988 -0.002884 0.002736 -0.00065662 -0.001457 -0.0007731 -0.00027038 0.00048135 0.0038942 -0.0039277 -0.0029022 0.00085756 0.002131 0.00041827 -0.0047111 0.0029025 -0.0028757 -0.0022368 -0.0019903 -0.00044948 0.0075117 0.00173 0.0016309 0.0021413 0.0039336 0.0015942 0.0005065 0.0024696 -0.0020797 0.0031333 0.0021935 0.0026818 0.003586 -0.0025594 0.0017289 0.001576 -0.0068614 0.0025591 -0.0021492 0.0021608 -0.0021786 -0.0012829 -0.00077014 0.00014094 0.0057257 0.00036254 -0.00021707 -0.00033571 -0.0019565 0.0034998 0.0040289 -0.0019832 0.0063363 0.0036114 -0.0013603 -0.0031143 -0.0031876 -0.0011383 0.0039885 -0.00093582 0.0015799 -8.0171e-05 0.0021757 -0.0014221 -0.00012465 0.0021943 -0.0042044 0.00029997 -0.0051341 0.0039309 0.0013745 0.0041275 -0.0025963 8.4882e-05 -3.3638e-05 -0.0027443 0.00052046 -0.001934 -0.0014888 0.0017115 0.0026799 -0.0013583 
